{
  "K": 2,
  "N": 140,
  "log_canopy_volume_std": [
    -2.0,
    -1.9712230215827338,
    -1.9424460431654675,
    -1.9136690647482015,
    -1.8848920863309353,
    -1.856115107913669,
    -1.8273381294964028,
    -1.7985611510791366,
    -1.7697841726618706,
    -1.7410071942446044,
    -1.7122302158273381,
    -1.683453237410072,
    -1.6546762589928057,
    -1.6258992805755397,
    -1.5971223021582734,
    -1.5683453237410072,
    -1.539568345323741,
    -1.5107913669064748,
    -1.4820143884892087,
    -1.4532374100719423,
    -1.4244604316546763,
    -1.39568345323741,
    -1.3669064748201438,
    -1.3381294964028778,
    -1.3093525179856114,
    -1.2805755395683454,
    -1.2517985611510791,
    -1.223021582733813,
    -1.1942446043165469,
    -1.1654676258992804,
    -1.1366906474820144,
    -1.1079136690647482,
    -1.079136690647482,
    -1.050359712230216,
    -1.0215827338129495,
    -0.9928057553956835,
    -0.9640287769784173,
    -0.935251798561151,
    -0.9064748201438848,
    -0.8776978417266188,
    -0.8489208633093526,
    -0.8201438848920863,
    -0.7913669064748201,
    -0.7625899280575539,
    -0.7338129496402879,
    -0.7050359712230216,
    -0.6762589928057554,
    -0.6474820143884892,
    -0.618705035971223,
    -0.5899280575539569,
    -0.5611510791366907,
    -0.5323741007194245,
    -0.5035971223021583,
    -0.474820143884892,
    -0.4460431654676258,
    -0.4172661870503598,
    -0.38848920863309355,
    -0.3597122302158273,
    -0.3309352517985611,
    -0.30215827338129486,
    -0.27338129496402885,
    -0.24460431654676262,
    -0.2158273381294964,
    -0.18705035971223016,
    -0.15827338129496393,
    -0.12949640287769792,
    -0.1007194244604317,
    -0.07194244604316546,
    -0.043165467625899234,
    -0.014388489208633004,
    0.014388489208633004,
    0.043165467625899456,
    0.07194244604316546,
    0.10071942446043147,
    0.12949640287769792,
    0.15827338129496393,
    0.18705035971223039,
    0.2158273381294964,
    0.2446043165467624,
    0.27338129496402885,
    0.30215827338129486,
    0.3309352517985613,
    0.3597122302158273,
    0.38848920863309333,
    0.4172661870503598,
    0.4460431654676258,
    0.47482014388489224,
    0.5035971223021583,
    0.5323741007194243,
    0.5611510791366907,
    0.5899280575539567,
    0.6187050359712232,
    0.6474820143884892,
    0.6762589928057552,
    0.7050359712230216,
    0.7338129496402876,
    0.7625899280575541,
    0.7913669064748201,
    0.8201438848920861,
    0.8489208633093526,
    0.8776978417266186,
    0.906474820143885,
    0.935251798561151,
    0.964028776978417,
    0.9928057553956835,
    1.0215827338129495,
    1.050359712230216,
    1.079136690647482,
    1.1079136690647484,
    1.1366906474820144,
    1.1654676258992804,
    1.1942446043165469,
    1.223021582733813,
    1.2517985611510793,
    1.2805755395683454,
    1.3093525179856114,
    1.3381294964028778,
    1.3669064748201438,
    1.3956834532374103,
    1.4244604316546763,
    1.4532374100719423,
    1.4820143884892087,
    1.5107913669064748,
    1.5395683453237412,
    1.5683453237410072,
    1.5971223021582732,
    1.6258992805755397,
    1.6546762589928057,
    1.6834532374100721,
    1.7122302158273381,
    1.7410071942446042,
    1.7697841726618706,
    1.7985611510791366,
    1.827338129496403,
    1.856115107913669,
    1.884892086330935,
    1.9136690647482015,
    1.9424460431654675,
    1.971223021582734,
    2.0
  ],
  "log_weight_std": [
    -1.0999999999999999,
    -1.0427338129496402,
    -0.9854676258992804,
    -0.9282014388489207,
    -0.870935251798561,
    -1.0136690647482014,
    -0.9564028776978416,
    -0.899136690647482,
    -0.8418705035971223,
    -0.7846043165467627,
    -0.9273381294964028,
    -0.8700719424460431,
    -0.8128057553956834,
    -0.7555395683453238,
    -0.698273381294964,
    -0.8410071942446044,
    -0.7837410071942446,
    -0.7264748201438849,
    -0.6692086330935253,
    -0.6119424460431654,
    -0.7546762589928058,
    -0.697410071942446,
    -0.6401438848920863,
    -0.5828776978417267,
    -0.5256115107913668,
    -0.6683453237410072,
    -0.6110791366906474,
    -0.5538129496402878,
    -0.49654676258992814,
    -0.43928057553956823,
    -0.5820143884892086,
    -0.5247482014388489,
    -0.4674820143884892,
    -0.41021582733812956,
    -0.35294964028776965,
    -0.49568345323741014,
    -0.4384172661870504,
    -0.3811510791366906,
    -0.32388489208633087,
    -0.2666187050359713,
    -0.40935251798561156,
    -0.3520863309352518,
    -0.294820143884892,
    -0.2375539568345323,
    -0.18028776978417274,
    -0.323021582733813,
    -0.26575539568345324,
    -0.20848920863309345,
    -0.1512230215827337,
    -0.09395683453237416,
    -0.23669064748201443,
    -0.17942446043165466,
    -0.12215827338129491,
    -0.06489208633093521,
    -0.007625899280575443,
    -0.15035971223021585,
    -0.09309352517985611,
    -0.035827338129496386,
    0.02143884892086334,
    0.07870503597122311,
    -0.0640287769784173,
    -0.006762589928057568,
    0.050503597122302166,
    0.1077697841726619,
    0.16503597122302166,
    0.02230215827338125,
    0.07956834532374099,
    0.13683453237410073,
    0.19410071942446044,
    0.2513669064748202,
    0.1086330935251798,
    0.16589928057553968,
    0.22316546762589928,
    0.28043165467625886,
    0.33769784172661876,
    0.19496402877697838,
    0.25223021582733823,
    0.30949640287769786,
    0.36676258992805744,
    0.42402877697841734,
    0.2812949640287769,
    0.33856115107913676,
    0.3958273381294964,
    0.453093525179856,
    0.5103597122302159,
    0.36762589928057543,
    0.4248920863309353,
    0.48215827338129497,
    0.5394244604316546,
    0.5966906474820145,
    0.453956834532374,
    0.5112230215827339,
    0.5684892086330935,
    0.6257553956834531,
    0.683021582733813,
    0.5402877697841726,
    0.5975539568345325,
    0.654820143884892,
    0.7120863309352516,
    0.7693525179856116,
    0.6266187050359711,
    0.683884892086331,
    0.7411510791366905,
    0.7984172661870502,
    0.8556834532374101,
    0.7129496402877696,
    0.7702158273381295,
    0.8274820143884891,
    0.884748201438849,
    0.9420143884892086,
    0.7992805755395682,
    0.8565467625899281,
    0.9138129496402877,
    0.9710791366906476,
    1.0283453237410072,
    0.8856115107913668,
    0.9428776978417267,
    1.0001438848920863,
    1.0574100719424462,
    1.1146762589928056,
    0.9719424460431654,
    1.0292086330935253,
    1.086474820143885,
    1.1437410071942447,
    1.2010071942446043,
    1.0582733812949638,
    1.1155395683453238,
    1.1728057553956834,
    1.2300719424460431,
    1.2873381294964028,
    1.1446043165467625,
    1.2018705035971224,
    1.2591366906474821,
    1.316402877697842,
    1.3736690647482015,
    1.230935251798561,
    1.288201438848921,
    1.3454676258992806,
    1.4027338129496405,
    1.46
  ]
}
